#pragma once
//#include <cstdarg>
namespace Eloquent {
    namespace ML {
        namespace Port {
            class RandomForest {
                public:
                    /**
                    * Predict class for features vector
                    */
                    int predict(float *x) {
                        uint8_t votes[2] = { 0 };
                        // tree #1
                        if (x[12] <= 0.2398984655737877) {
                            if (x[3] <= -1.1281861066818237) {
                                votes[1] += 1;
                            }

                            else {
                                votes[0] += 1;
                            }
                        }

                        else {
                            if (x[13] <= 0.6752987802028656) {
                                if (x[11] <= 1.3250542283058167) {
                                    votes[0] += 1;
                                }

                                else {
                                    votes[1] += 1;
                                }
                            }

                            else {
                                if (x[7] <= 1.6606597900390625) {
                                    if (x[12] <= 0.5576882064342499) {
                                        votes[1] += 1;
                                    }

                                    else {
                                        votes[0] += 1;
                                    }
                                }

                                else {
                                    if (x[11] <= 0.9779468476772308) {
                                        votes[0] += 1;
                                    }

                                    else {
                                        if (x[10] <= 0.20863168686628342) {
                                            votes[0] += 1;
                                        }

                                        else {
                                            votes[1] += 1;
                                        }
                                    }
                                }
                            }
                        }

                        // tree #2
                        if (x[7] <= 1.1629552841186523) {
                            votes[0] += 1;
                        }

                        else {
                            if (x[10] <= 0.2057252898812294) {
                                votes[0] += 1;
                            }

                            else {
                                if (x[4] <= -0.5383333265781403) {
                                    if (x[12] <= 1.039439618587494) {
                                        votes[0] += 1;
                                    }

                                    else {
                                        votes[1] += 1;
                                    }
                                }

                                else {
                                    votes[1] += 1;
                                }
                            }
                        }

                        // tree #3
                        if (x[13] <= 0.37090031802654266) {
                            if (x[6] <= 1.0963792204856873) {
                                votes[0] += 1;
                            }

                            else {
                                if (x[13] <= 0.2818968594074249) {
                                    votes[0] += 1;
                                }

                                else {
                                    votes[1] += 1;
                                }
                            }
                        }

                        else {
                            if (x[11] <= 0.9203190207481384) {
                                votes[0] += 1;
                            }

                            else {
                                if (x[5] <= 0.6065999865531921) {
                                    if (x[3] <= 0.8546052575111389) {
                                        votes[1] += 1;
                                    }

                                    else {
                                        if (x[8] <= 0.18559738248586655) {
                                            votes[0] += 1;
                                        }

                                        else {
                                            votes[1] += 1;
                                        }
                                    }
                                }

                                else {
                                    if (x[10] <= 0.4558490216732025) {
                                        votes[0] += 1;
                                    }

                                    else {
                                        votes[1] += 1;
                                    }
                                }
                            }
                        }

                        // tree #4
                        if (x[2] <= 0.0776958130300045) {
                            if (x[11] <= 1.071659505367279) {
                                if (x[6] <= 1.0575639605522156) {
                                    votes[0] += 1;
                                }

                                else {
                                    if (x[6] <= 1.068301022052765) {
                                        votes[1] += 1;
                                    }

                                    else {
                                        votes[0] += 1;
                                    }
                                }
                            }

                            else {
                                if (x[12] <= 0.1373361051082611) {
                                    votes[0] += 1;
                                }

                                else {
                                    if (x[7] <= 1.1842542588710785) {
                                        votes[0] += 1;
                                    }

                                    else {
                                        votes[1] += 1;
                                    }
                                }
                            }
                        }

                        else {
                            if (x[7] <= 2.7800345420837402) {
                                if (x[0] <= 0.46032895147800446) {
                                    votes[0] += 1;
                                }

                                else {
                                    votes[1] += 1;
                                }
                            }

                            else {
                                votes[1] += 1;
                            }
                        }

                        // tree #5
                        if (x[6] <= 1.055250346660614) {
                            if (x[13] <= 0.5216595530509949) {
                                if (x[11] <= 1.3174234628677368) {
                                    votes[0] += 1;
                                }

                                else {
                                    if (x[3] <= -0.6646299213171005) {
                                        votes[0] += 1;
                                    }

                                    else {
                                        votes[1] += 1;
                                    }
                                }
                            }

                            else {
                                if (x[5] <= -0.6347368359565735) {
                                    if (x[9] <= 0.9877427518367767) {
                                        if (x[13] <= 1.2737033367156982) {
                                            votes[0] += 1;
                                        }

                                        else {
                                            votes[1] += 1;
                                        }
                                    }

                                    else {
                                        votes[1] += 1;
                                    }
                                }

                                else {
                                    if (x[11] <= 0.9203190207481384) {
                                        votes[0] += 1;
                                    }

                                    else {
                                        if (x[11] <= 1.4405224919319153) {
                                            if (x[3] <= -0.9255087971687317) {
                                                votes[0] += 1;
                                            }

                                            else {
                                                votes[1] += 1;
                                            }
                                        }

                                        else {
                                            votes[1] += 1;
                                        }
                                    }
                                }
                            }
                        }

                        else {
                            if (x[0] <= 0.5994454920291901) {
                                if (x[8] <= 0.16420793160796165) {
                                    votes[0] += 1;
                                }

                                else {
                                    votes[1] += 1;
                                }
                            }

                            else {
                                if (x[12] <= 0.3990001603960991) {
                                    votes[0] += 1;
                                }

                                else {
                                    if (x[9] <= 0.7644775211811066) {
                                        votes[1] += 1;
                                    }

                                    else {
                                        votes[0] += 1;
                                    }
                                }
                            }
                        }

                        // tree #6
                        if (x[11] <= 1.127880036830902) {
                            if (x[2] <= -0.6902631521224976) {
                                if (x[9] <= 0.5962548553943634) {
                                    votes[0] += 1;
                                }

                                else {
                                    votes[1] += 1;
                                }
                            }

                            else {
                                votes[0] += 1;
                            }
                        }

                        else {
                            if (x[4] <= -0.5980640351772308) {
                                votes[0] += 1;
                            }

                            else {
                                if (x[13] <= 0.4178095757961273) {
                                    if (x[11] <= 1.4436662197113037) {
                                        votes[0] += 1;
                                    }

                                    else {
                                        votes[1] += 1;
                                    }
                                }

                                else {
                                    votes[1] += 1;
                                }
                            }
                        }

                        // tree #7
                        if (x[11] <= 1.285314679145813) {
                            if (x[12] <= 0.8483776748180389) {
                                votes[0] += 1;
                            }

                            else {
                                if (x[10] <= 0.3755429834127426) {
                                    votes[0] += 1;
                                }

                                else {
                                    votes[1] += 1;
                                }
                            }
                        }

                        else {
                            if (x[4] <= -0.5980640351772308) {
                                votes[0] += 1;
                            }

                            else {
                                votes[1] += 1;
                            }
                        }

                        // tree #8
                        if (x[12] <= 0.7558793127536774) {
                            if (x[10] <= 0.32559674978256226) {
                                if (x[7] <= 1.677087128162384) {
                                    if (x[1] <= -0.8395234942436218) {
                                        votes[0] += 1;
                                    }

                                    else {
                                        if (x[5] <= -0.4176689237356186) {
                                            votes[1] += 1;
                                        }

                                        else {
                                            votes[0] += 1;
                                        }
                                    }
                                }

                                else {
                                    votes[1] += 1;
                                }
                            }

                            else {
                                if (x[0] <= 0.1561736837029457) {
                                    if (x[5] <= 0.44005846977233887) {
                                        if (x[7] <= 1.5112985968589783) {
                                            votes[0] += 1;
                                        }

                                        else {
                                            votes[1] += 1;
                                        }
                                    }

                                    else {
                                        votes[1] += 1;
                                    }
                                }

                                else {
                                    if (x[9] <= 0.514695331454277) {
                                        votes[0] += 1;
                                    }

                                    else {
                                        if (x[7] <= 1.132664442062378) {
                                            votes[0] += 1;
                                        }

                                        else {
                                            votes[1] += 1;
                                        }
                                    }
                                }
                            }
                        }

                        else {
                            if (x[2] <= 0.06853070482611656) {
                                if (x[4] <= 1.1046000123023987) {
                                    if (x[13] <= 0.4990070164203644) {
                                        if (x[10] <= 0.6889437139034271) {
                                            votes[0] += 1;
                                        }

                                        else {
                                            votes[1] += 1;
                                        }
                                    }

                                    else {
                                        if (x[13] <= 0.6940401494503021) {
                                            if (x[12] <= 1.4799759685993195) {
                                                votes[1] += 1;
                                            }

                                            else {
                                                votes[0] += 1;
                                            }
                                        }

                                        else {
                                            if (x[8] <= 0.6310785114765167) {
                                                votes[1] += 1;
                                            }

                                            else {
                                                if (x[10] <= 0.3001605272293091) {
                                                    votes[0] += 1;
                                                }

                                                else {
                                                    votes[1] += 1;
                                                }
                                            }
                                        }
                                    }
                                }

                                else {
                                    votes[0] += 1;
                                }
                            }

                            else {
                                if (x[13] <= 1.3387320637702942) {
                                    votes[0] += 1;
                                }

                                else {
                                    votes[1] += 1;
                                }
                            }
                        }

                        // tree #9
                        if (x[10] <= 0.3243611305952072) {
                            if (x[6] <= 1.1191514134407043) {
                                if (x[2] <= 0.07826068997383118) {
                                    if (x[4] <= -0.01990937441587448) {
                                        if (x[4] <= -0.3045394793152809) {
                                            votes[0] += 1;
                                        }

                                        else {
                                            votes[1] += 1;
                                        }
                                    }

                                    else {
                                        votes[0] += 1;
                                    }
                                }

                                else {
                                    votes[0] += 1;
                                }
                            }

                            else {
                                votes[1] += 1;
                            }
                        }

                        else {
                            if (x[8] <= 0.1353829726576805) {
                                votes[0] += 1;
                            }

                            else {
                                if (x[7] <= 1.2610596418380737) {
                                    votes[0] += 1;
                                }

                                else {
                                    votes[1] += 1;
                                }
                            }
                        }

                        // tree #10
                        if (x[7] <= 1.6630340814590454) {
                            if (x[3] <= 0.1398906260728836) {
                                votes[0] += 1;
                            }

                            else {
                                if (x[11] <= 1.3149627447128296) {
                                    if (x[3] <= 0.4888264536857605) {
                                        if (x[5] <= -0.24431365448981524) {
                                            votes[1] += 1;
                                        }

                                        else {
                                            votes[0] += 1;
                                        }
                                    }

                                    else {
                                        votes[0] += 1;
                                    }
                                }

                                else {
                                    votes[1] += 1;
                                }
                            }
                        }

                        else {
                            if (x[4] <= -0.7593973577022552) {
                                if (x[10] <= 0.5363168269395828) {
                                    if (x[0] <= 0.37727807462215424) {
                                        votes[0] += 1;
                                    }

                                    else {
                                        votes[1] += 1;
                                    }
                                }

                                else {
                                    votes[1] += 1;
                                }
                            }

                            else {
                                if (x[4] <= 1.0661333799362183) {
                                    votes[1] += 1;
                                }

                                else {
                                    votes[0] += 1;
                                }
                            }
                        }

                        // tree #11
                        if (x[13] <= 0.5157998502254486) {
                            if (x[8] <= 0.13667236268520355) {
                                votes[0] += 1;
                            }

                            else {
                                if (x[11] <= 1.2515180706977844) {
                                    votes[0] += 1;
                                }

                                else {
                                    votes[1] += 1;
                                }
                            }
                        }

                        else {
                            if (x[7] <= 1.7871424555778503) {
                                if (x[12] <= 0.9587926864624023) {
                                    if (x[9] <= 0.740700364112854) {
                                        votes[0] += 1;
                                    }

                                    else {
                                        if (x[7] <= 1.3495562076568604) {
                                            votes[0] += 1;
                                        }

                                        else {
                                            votes[1] += 1;
                                        }
                                    }
                                }

                                else {
                                    votes[0] += 1;
                                }
                            }

                            else {
                                if (x[10] <= 0.21208389848470688) {
                                    votes[0] += 1;
                                }

                                else {
                                    if (x[0] <= -0.28234414756298065) {
                                        votes[0] += 1;
                                    }

                                    else {
                                        votes[1] += 1;
                                    }
                                }
                            }
                        }

                        // tree #12
                        if (x[11] <= 1.1152282357215881) {
                            if (x[2] <= -0.407339483499527) {
                                if (x[12] <= 0.6767069697380066) {
                                    votes[0] += 1;
                                }

                                else {
                                    votes[1] += 1;
                                }
                            }

                            else {
                                votes[0] += 1;
                            }
                        }

                        else {
                            if (x[4] <= -1.8474000096321106) {
                                votes[0] += 1;
                            }

                            else {
                                if (x[7] <= 1.5756823420524597) {
                                    if (x[13] <= 0.2096485123038292) {
                                        votes[0] += 1;
                                    }

                                    else {
                                        votes[1] += 1;
                                    }
                                }

                                else {
                                    votes[1] += 1;
                                }
                            }
                        }

                        // tree #13
                        if (x[11] <= 1.127880036830902) {
                            if (x[0] <= -0.18673333525657654) {
                                if (x[11] <= 0.9987728595733643) {
                                    votes[1] += 1;
                                }

                                else {
                                    votes[0] += 1;
                                }
                            }

                            else {
                                if (x[6] <= 0.8831369578838348) {
                                    votes[1] += 1;
                                }

                                else {
                                    votes[0] += 1;
                                }
                            }
                        }

                        else {
                            if (x[8] <= 0.1353829726576805) {
                                if (x[2] <= -0.2445024698972702) {
                                    votes[0] += 1;
                                }

                                else {
                                    votes[1] += 1;
                                }
                            }

                            else {
                                if (x[10] <= 0.19107738882303238) {
                                    votes[0] += 1;
                                }

                                else {
                                    votes[1] += 1;
                                }
                            }
                        }

                        // tree #14
                        if (x[12] <= 0.22357899695634842) {
                            if (x[11] <= 1.8712968826293945) {
                                if (x[13] <= 0.9008902013301849) {
                                    votes[0] += 1;
                                }

                                else {
                                    votes[1] += 1;
                                }
                            }

                            else {
                                votes[1] += 1;
                            }
                        }

                        else {
                            if (x[11] <= 0.9479643702507019) {
                                votes[0] += 1;
                            }

                            else {
                                if (x[10] <= 0.19107738882303238) {
                                    votes[0] += 1;
                                }

                                else {
                                    if (x[0] <= -0.28234414756298065) {
                                        votes[0] += 1;
                                    }

                                    else {
                                        votes[1] += 1;
                                    }
                                }
                            }
                        }

                        // tree #15
                        if (x[7] <= 1.6376718878746033) {
                            if (x[7] <= 1.1629552841186523) {
                                votes[0] += 1;
                            }

                            else {
                                if (x[6] <= 1.0478391647338867) {
                                    if (x[7] <= 1.4481784105300903) {
                                        if (x[1] <= -0.8459919095039368) {
                                            votes[0] += 1;
                                        }

                                        else {
                                            votes[1] += 1;
                                        }
                                    }

                                    else {
                                        votes[0] += 1;
                                    }
                                }

                                else {
                                    votes[1] += 1;
                                }
                            }
                        }

                        else {
                            if (x[6] <= 0.9892785251140594) {
                                if (x[1] <= -0.8111368417739868) {
                                    votes[0] += 1;
                                }

                                else {
                                    votes[1] += 1;
                                }
                            }

                            else {
                                votes[1] += 1;
                            }
                        }

                        // tree #16
                        if (x[7] <= 1.1629552841186523) {
                            votes[0] += 1;
                        }

                        else {
                            if (x[13] <= 0.25993239134550095) {
                                votes[0] += 1;
                            }

                            else {
                                if (x[11] <= 0.9211262762546539) {
                                    votes[0] += 1;
                                }

                                else {
                                    if (x[7] <= 1.6279879212379456) {
                                        if (x[2] <= -0.4904666692018509) {
                                            if (x[12] <= 0.5710992813110352) {
                                                votes[1] += 1;
                                            }

                                            else {
                                                votes[0] += 1;
                                            }
                                        }

                                        else {
                                            votes[1] += 1;
                                        }
                                    }

                                    else {
                                        votes[1] += 1;
                                    }
                                }
                            }
                        }

                        // tree #17
                        if (x[11] <= 0.9387293457984924) {
                            votes[0] += 1;
                        }

                        else {
                            if (x[10] <= 0.2056562528014183) {
                                votes[0] += 1;
                            }

                            else {
                                if (x[13] <= 0.36299194395542145) {
                                    if (x[0] <= 0.15243420749902725) {
                                        votes[0] += 1;
                                    }

                                    else {
                                        votes[1] += 1;
                                    }
                                }

                                else {
                                    if (x[4] <= -1.8474000096321106) {
                                        votes[0] += 1;
                                    }

                                    else {
                                        votes[1] += 1;
                                    }
                                }
                            }
                        }

                        // tree #18
                        if (x[10] <= 0.26179586350917816) {
                            if (x[6] <= 0.8831369578838348) {
                                votes[1] += 1;
                            }

                            else {
                                votes[0] += 1;
                            }
                        }

                        else {
                            if (x[7] <= 1.4076388478279114) {
                                votes[0] += 1;
                            }

                            else {
                                if (x[13] <= 0.2096485123038292) {
                                    votes[0] += 1;
                                }

                                else {
                                    if (x[11] <= 0.9278890192508698) {
                                        votes[0] += 1;
                                    }

                                    else {
                                        if (x[12] <= 2.1568411588668823) {
                                            votes[1] += 1;
                                        }

                                        else {
                                            if (x[12] <= 2.2686432600021362) {
                                                votes[0] += 1;
                                            }

                                            else {
                                                votes[1] += 1;
                                            }
                                        }
                                    }
                                }
                            }
                        }

                        // tree #19
                        if (x[11] <= 1.1152282357215881) {
                            if (x[5] <= -0.4670189172029495) {
                                if (x[4] <= 0.7831421196460724) {
                                    if (x[13] <= 0.7454738020896912) {
                                        votes[0] += 1;
                                    }

                                    else {
                                        if (x[0] <= 0.30136486142873764) {
                                            votes[1] += 1;
                                        }

                                        else {
                                            votes[0] += 1;
                                        }
                                    }
                                }

                                else {
                                    votes[0] += 1;
                                }
                            }

                            else {
                                if (x[3] <= 0.787537693977356) {
                                    votes[0] += 1;
                                }

                                else {
                                    if (x[4] <= 0.2144736796617508) {
                                        votes[0] += 1;
                                    }

                                    else {
                                        votes[1] += 1;
                                    }
                                }
                            }
                        }

                        else {
                            if (x[0] <= -0.2662043794989586) {
                                votes[0] += 1;
                            }

                            else {
                                if (x[10] <= 0.2056562528014183) {
                                    votes[0] += 1;
                                }

                                else {
                                    votes[1] += 1;
                                }
                            }
                        }

                        // tree #20
                        if (x[7] <= 1.4000290632247925) {
                            if (x[12] <= 0.3980484753847122) {
                                votes[0] += 1;
                            }

                            else {
                                if (x[11] <= 0.9483480155467987) {
                                    votes[0] += 1;
                                }

                                else {
                                    votes[1] += 1;
                                }
                            }
                        }

                        else {
                            if (x[6] <= 1.0225988030433655) {
                                if (x[12] <= 2.5797650814056396) {
                                    if (x[10] <= 0.20128890872001648) {
                                        votes[0] += 1;
                                    }

                                    else {
                                        if (x[2] <= -0.3725929707288742) {
                                            votes[0] += 1;
                                        }

                                        else {
                                            votes[1] += 1;
                                        }
                                    }
                                }

                                else {
                                    votes[0] += 1;
                                }
                            }

                            else {
                                votes[1] += 1;
                            }
                        }

                        // tree #21
                        if (x[11] <= 1.1419376134872437) {
                            if (x[5] <= 0.9115131497383118) {
                                if (x[9] <= 0.834274023771286) {
                                    if (x[5] <= -0.31615225225687027) {
                                        votes[1] += 1;
                                    }

                                    else {
                                        votes[0] += 1;
                                    }
                                }

                                else {
                                    votes[0] += 1;
                                }
                            }

                            else {
                                if (x[13] <= 1.028319090604782) {
                                    votes[1] += 1;
                                }

                                else {
                                    votes[0] += 1;
                                }
                            }
                        }

                        else {
                            if (x[13] <= 0.2096485123038292) {
                                votes[0] += 1;
                            }

                            else {
                                if (x[8] <= 0.08425292745232582) {
                                    votes[0] += 1;
                                }

                                else {
                                    if (x[1] <= -0.8190315663814545) {
                                        if (x[10] <= 0.22193049639463425) {
                                            votes[0] += 1;
                                        }

                                        else {
                                            if (x[6] <= 0.9961808025836945) {
                                                votes[0] += 1;
                                            }

                                            else {
                                                votes[1] += 1;
                                            }
                                        }
                                    }

                                    else {
                                        votes[1] += 1;
                                    }
                                }
                            }
                        }

                        // tree #22
                        if (x[13] <= 0.49742598831653595) {
                            if (x[6] <= 0.8831824660301208) {
                                votes[1] += 1;
                            }

                            else {
                                if (x[3] <= -0.5013180375099182) {
                                    if (x[10] <= 0.7146408557891846) {
                                        votes[0] += 1;
                                    }

                                    else {
                                        votes[1] += 1;
                                    }
                                }

                                else {
                                    if (x[11] <= 1.4605252742767334) {
                                        votes[0] += 1;
                                    }

                                    else {
                                        votes[1] += 1;
                                    }
                                }
                            }
                        }

                        else {
                            if (x[10] <= 0.20128890872001648) {
                                votes[0] += 1;
                            }

                            else {
                                if (x[4] <= -1.8474000096321106) {
                                    votes[0] += 1;
                                }

                                else {
                                    if (x[12] <= 0.13738493248820305) {
                                        votes[0] += 1;
                                    }

                                    else {
                                        if (x[8] <= 0.8510497808456421) {
                                            if (x[4] <= 1.0540789365768433) {
                                                votes[1] += 1;
                                            }

                                            else {
                                                if (x[5] <= -0.9922000169754028) {
                                                    votes[1] += 1;
                                                }

                                                else {
                                                    votes[0] += 1;
                                                }
                                            }
                                        }

                                        else {
                                            votes[0] += 1;
                                        }
                                    }
                                }
                            }
                        }

                        // tree #23
                        if (x[8] <= 0.2117159441113472) {
                            if (x[11] <= 1.896305799484253) {
                                votes[0] += 1;
                            }

                            else {
                                votes[1] += 1;
                            }
                        }

                        else {
                            if (x[13] <= 0.5157998502254486) {
                                if (x[11] <= 1.598667025566101) {
                                    votes[0] += 1;
                                }

                                else {
                                    votes[1] += 1;
                                }
                            }

                            else {
                                if (x[1] <= -0.8599929809570312) {
                                    if (x[9] <= 0.9165721535682678) {
                                        votes[0] += 1;
                                    }

                                    else {
                                        votes[1] += 1;
                                    }
                                }

                                else {
                                    if (x[9] <= 0.5688855350017548) {
                                        votes[0] += 1;
                                    }

                                    else {
                                        if (x[8] <= 0.7915557324886322) {
                                            if (x[7] <= 1.1629552841186523) {
                                                votes[0] += 1;
                                            }

                                            else {
                                                if (x[8] <= 0.34890319406986237) {
                                                    if (x[8] <= 0.34551607072353363) {
                                                        if (x[0] <= 0.2823999896645546) {
                                                            votes[1] += 1;
                                                        }

                                                        else {
                                                            votes[0] += 1;
                                                        }
                                                    }

                                                    else {
                                                        votes[0] += 1;
                                                    }
                                                }

                                                else {
                                                    votes[1] += 1;
                                                }
                                            }
                                        }

                                        else {
                                            if (x[9] <= 0.706811398267746) {
                                                votes[1] += 1;
                                            }

                                            else {
                                                votes[0] += 1;
                                            }
                                        }
                                    }
                                }
                            }
                        }

                        // tree #24
                        if (x[7] <= 1.1629552841186523) {
                            votes[0] += 1;
                        }

                        else {
                            if (x[10] <= 0.2057252898812294) {
                                votes[0] += 1;
                            }

                            else {
                                if (x[3] <= -1.2145771980285645) {
                                    if (x[3] <= -1.3899824619293213) {
                                        votes[1] += 1;
                                    }

                                    else {
                                        votes[0] += 1;
                                    }
                                }

                                else {
                                    if (x[4] <= -0.5030877143144608) {
                                        if (x[3] <= 0.763866662979126) {
                                            votes[1] += 1;
                                        }

                                        else {
                                            votes[0] += 1;
                                        }
                                    }

                                    else {
                                        votes[1] += 1;
                                    }
                                }
                            }
                        }

                        // tree #25
                        if (x[11] <= 1.1447756886482239) {
                            if (x[6] <= 1.0575639605522156) {
                                votes[0] += 1;
                            }

                            else {
                                if (x[12] <= 0.5704347640275955) {
                                    votes[0] += 1;
                                }

                                else {
                                    if (x[6] <= 1.068301022052765) {
                                        votes[1] += 1;
                                    }

                                    else {
                                        votes[0] += 1;
                                    }
                                }
                            }
                        }

                        else {
                            if (x[8] <= 0.14513343572616577) {
                                if (x[13] <= 0.39799095690250397) {
                                    votes[0] += 1;
                                }

                                else {
                                    votes[1] += 1;
                                }
                            }

                            else {
                                if (x[5] <= 0.7152289748191833) {
                                    votes[1] += 1;
                                }

                                else {
                                    if (x[12] <= 1.315125048160553) {
                                        votes[0] += 1;
                                    }

                                    else {
                                        votes[1] += 1;
                                    }
                                }
                            }
                        }

                        // tree #26
                        if (x[8] <= 0.20357795804738998) {
                            if (x[6] <= 0.8660967946052551) {
                                votes[1] += 1;
                            }

                            else {
                                if (x[2] <= -0.5976850688457489) {
                                    votes[1] += 1;
                                }

                                else {
                                    votes[0] += 1;
                                }
                            }
                        }

                        else {
                            if (x[7] <= 1.1629552841186523) {
                                votes[0] += 1;
                            }

                            else {
                                if (x[11] <= 0.9483480155467987) {
                                    votes[0] += 1;
                                }

                                else {
                                    if (x[5] <= -0.9772368371486664) {
                                        if (x[13] <= 1.731779396533966) {
                                            votes[0] += 1;
                                        }

                                        else {
                                            votes[1] += 1;
                                        }
                                    }

                                    else {
                                        votes[1] += 1;
                                    }
                                }
                            }
                        }

                        // tree #27
                        if (x[7] <= 1.8685380220413208) {
                            if (x[6] <= 1.1366573572158813) {
                                if (x[13] <= 1.1974052786827087) {
                                    if (x[6] <= 0.8523760735988617) {
                                        votes[1] += 1;
                                    }

                                    else {
                                        if (x[3] <= 1.0726684033870697) {
                                            if (x[0] <= -0.07895875722169876) {
                                                if (x[1] <= -0.9107942879199982) {
                                                    if (x[11] <= 0.8748356699943542) {
                                                        votes[0] += 1;
                                                    }

                                                    else {
                                                        votes[1] += 1;
                                                    }
                                                }

                                                else {
                                                    votes[0] += 1;
                                                }
                                            }

                                            else {
                                                votes[0] += 1;
                                            }
                                        }

                                        else {
                                            if (x[13] <= 0.37410011887550354) {
                                                votes[1] += 1;
                                            }

                                            else {
                                                votes[0] += 1;
                                            }
                                        }
                                    }
                                }

                                else {
                                    if (x[3] <= 0.6283999979496002) {
                                        votes[1] += 1;
                                    }

                                    else {
                                        votes[0] += 1;
                                    }
                                }
                            }

                            else {
                                votes[1] += 1;
                            }
                        }

                        else {
                            if (x[11] <= 0.9563842713832855) {
                                votes[0] += 1;
                            }

                            else {
                                if (x[3] <= -1.2365333437919617) {
                                    if (x[2] <= -0.3320666551589966) {
                                        votes[0] += 1;
                                    }

                                    else {
                                        votes[1] += 1;
                                    }
                                }

                                else {
                                    votes[1] += 1;
                                }
                            }
                        }

                        // tree #28
                        if (x[7] <= 1.8416869640350342) {
                            if (x[6] <= 1.1047441959381104) {
                                if (x[13] <= 1.286655306816101) {
                                    if (x[11] <= 1.641456663608551) {
                                        if (x[11] <= 1.3436725735664368) {
                                            votes[0] += 1;
                                        }

                                        else {
                                            if (x[9] <= 0.864218533039093) {
                                                votes[0] += 1;
                                            }

                                            else {
                                                votes[1] += 1;
                                            }
                                        }
                                    }

                                    else {
                                        votes[1] += 1;
                                    }
                                }

                                else {
                                    votes[1] += 1;
                                }
                            }

                            else {
                                if (x[7] <= 1.2139518558979034) {
                                    votes[0] += 1;
                                }

                                else {
                                    votes[1] += 1;
                                }
                            }
                        }

                        else {
                            if (x[2] <= 0.02065789559856057) {
                                if (x[10] <= 0.21884320676326752) {
                                    votes[0] += 1;
                                }

                                else {
                                    if (x[12] <= 2.1568411588668823) {
                                        votes[1] += 1;
                                    }

                                    else {
                                        if (x[0] <= -0.16133596189320087) {
                                            votes[0] += 1;
                                        }

                                        else {
                                            votes[1] += 1;
                                        }
                                    }
                                }
                            }

                            else {
                                if (x[11] <= 1.1769621670246124) {
                                    votes[0] += 1;
                                }

                                else {
                                    votes[1] += 1;
                                }
                            }
                        }

                        // tree #29
                        if (x[2] <= 0.06853070482611656) {
                            if (x[13] <= 0.49742598831653595) {
                                votes[0] += 1;
                            }

                            else {
                                if (x[10] <= 0.3243611305952072) {
                                    if (x[7] <= 2.232906222343445) {
                                        if (x[6] <= 0.8786123991012573) {
                                            votes[1] += 1;
                                        }

                                        else {
                                            votes[0] += 1;
                                        }
                                    }

                                    else {
                                        votes[1] += 1;
                                    }
                                }

                                else {
                                    if (x[8] <= 0.6979936063289642) {
                                        votes[1] += 1;
                                    }

                                    else {
                                        if (x[13] <= 0.8078741133213043) {
                                            votes[0] += 1;
                                        }

                                        else {
                                            votes[1] += 1;
                                        }
                                    }
                                }
                            }
                        }

                        else {
                            if (x[6] <= 1.0460852980613708) {
                                if (x[11] <= 1.1852635145187378) {
                                    votes[0] += 1;
                                }

                                else {
                                    votes[1] += 1;
                                }
                            }

                            else {
                                votes[1] += 1;
                            }
                        }

                        // tree #30
                        if (x[7] <= 1.1627652645111084) {
                            votes[0] += 1;
                        }

                        else {
                            if (x[11] <= 0.9483480155467987) {
                                votes[0] += 1;
                            }

                            else {
                                if (x[8] <= 0.2047395333647728) {
                                    if (x[11] <= 1.2981036901474) {
                                        votes[0] += 1;
                                    }

                                    else {
                                        if (x[12] <= 0.17323384433984756) {
                                            votes[0] += 1;
                                        }

                                        else {
                                            votes[1] += 1;
                                        }
                                    }
                                }

                                else {
                                    votes[1] += 1;
                                }
                            }
                        }

                        // return argmax of votes
                        uint8_t classIdx = 0;
                        float maxVotes = votes[0];

                        for (uint8_t i = 1; i < 2; i++) {
                            if (votes[i] > maxVotes) {
                                classIdx = i;
                                maxVotes = votes[i];
                            }
                        }

                        return classIdx;
                    }

                    /**
                    * Predict readable class name
                    */
                    int predictLabel(float *x) {
                        return idxToLabel(predict(x));
                    }

                    /**
                    * Convert class idx to readable name
                    */
                    int idxToLabel(uint8_t classIdx) {
                        switch (classIdx) {
                            case 0:
                            return 0;
                            case 1:
                            return 1;
                            default:
                            return -1;
                        }
                    }

                protected:
                };
            }
        }
    }
